digraph Tree {
node [shape=box, style="filled, rounded", color="black", fontname=helvetica] ;
edge [fontname=helvetica] ;
0 [label="Enjoyment <= 2.5\ngini = 0.499\nsamples = 3864\nvalue = [2002, 1862]\nclass = Not_Purchase", fillcolor="#e5813912"] ;
1 [label="Relevance <= 2.5\ngini = 0.361\nsamples = 1862\nvalue = [1421, 441]\nclass = Not_Purchase", fillcolor="#e58139b0"] ;
0 -> 1 [labeldistance=2.5, labelangle=45, headlabel="True"] ;
2 [label="Relevance <= 1.5\ngini = 0.318\nsamples = 1539\nvalue = [1234, 305]\nclass = Not_Purchase", fillcolor="#e58139c0"] ;
1 -> 2 ;
3 [label="gini = 0.228\nsamples = 639\nvalue = [555, 84]\nclass = Not_Purchase", fillcolor="#e58139d8"] ;
2 -> 3 ;
4 [label="gini = 0.371\nsamples = 900\nvalue = [679, 221]\nclass = Not_Purchase", fillcolor="#e58139ac"] ;
2 -> 4 ;
5 [label="Distinctiveness <= 1.5\ngini = 0.488\nsamples = 323\nvalue = [187, 136]\nclass = Not_Purchase", fillcolor="#e5813946"] ;
1 -> 5 ;
6 [label="gini = 0.405\nsamples = 78\nvalue = [56, 22]\nclass = Not_Purchase", fillcolor="#e581399b"] ;
5 -> 6 ;
7 [label="gini = 0.498\nsamples = 245\nvalue = [131, 114]\nclass = Not_Purchase", fillcolor="#e5813921"] ;
5 -> 7 ;
8 [label="Enjoyment <= 3.5\ngini = 0.412\nsamples = 2002\nvalue = [581, 1421]\nclass = Purchase", fillcolor="#399de597"] ;
0 -> 8 [labeldistance=2.5, labelangle=-45, headlabel="False"] ;
9 [label="Distinctiveness <= 2.5\ngini = 0.485\nsamples = 1020\nvalue = [421, 599]\nclass = Purchase", fillcolor="#399de54c"] ;
8 -> 9 ;
10 [label="gini = 0.496\nsamples = 819\nvalue = [375, 444]\nclass = Purchase", fillcolor="#399de528"] ;
9 -> 10 ;
11 [label="gini = 0.353\nsamples = 201\nvalue = [46, 155]\nclass = Purchase", fillcolor="#399de5b3"] ;
9 -> 11 ;
12 [label="Brand_Appeal <= 2.5\ngini = 0.273\nsamples = 982\nvalue = [160, 822]\nclass = Purchase", fillcolor="#399de5cd"] ;
8 -> 12 ;
13 [label="gini = 0.49\nsamples = 49\nvalue = [21, 28]\nclass = Purchase", fillcolor="#399de540"] ;
12 -> 13 ;
14 [label="gini = 0.254\nsamples = 933\nvalue = [139, 794]\nclass = Purchase", fillcolor="#399de5d2"] ;
12 -> 14 ;
}