digraph Tree {
node [shape=box, style="filled, rounded", color="black", fontname=helvetica] ;
edge [fontname=helvetica] ;
0 [label="Relevance <= 1.5\ngini = 0.404\nsamples = 3864\nvalue = [1086, 2778]\nclass = Aware", fillcolor="#399de59b"] ;
1 [label="Brand_Appeal <= 0.5\ngini = 0.486\nsamples = 714\nvalue = [298, 416]\nclass = Aware", fillcolor="#399de548"] ;
0 -> 1 [labeldistance=2.5, labelangle=45, headlabel="True"] ;
2 [label="gini = 0.361\nsamples = 38\nvalue = [29, 9]\nclass = Unaware", fillcolor="#e58139b0"] ;
1 -> 2 ;
3 [label="gini = 0.479\nsamples = 676\nvalue = [269, 407]\nclass = Aware", fillcolor="#399de556"] ;
1 -> 3 ;
4 [label="Branding <= 3.5\ngini = 0.375\nsamples = 3150\nvalue = [788, 2362]\nclass = Aware", fillcolor="#399de5aa"] ;
0 -> 4 [labeldistance=2.5, labelangle=-45, headlabel="False"] ;
5 [label="gini = 0.405\nsamples = 2029\nvalue = [572, 1457]\nclass = Aware", fillcolor="#399de59b"] ;
4 -> 5 ;
6 [label="gini = 0.311\nsamples = 1121\nvalue = [216, 905]\nclass = Aware", fillcolor="#399de5c2"] ;
4 -> 6 ;
}